1.410329877981322113e+02
-5.988320695621125012e+00
3.135251154549543617e+00
5.118018936374368444e+00
4.192979860534667969e+05
-4.740162526810784271e+01
-2.914729758590711928e+00
1.066152458309252093e+00
-2.322984937032538610e+00
-1.278954310068544800e+02
1.206985235703053377e+03
4.768878950130018168e+00
3.093691343748152800e+00
-1.381017263146531615e+00
-3.714595767558587340e+03
9.852299227814624828e+03
1.048649226455688477e+05
1.048623895721435547e+05
1.048791639709472656e+05
1.046959327163696289e+05
6.968680069351196289e+04
6.997575081253051758e+04
6.959644715499877930e+04
6.978023373413085938e+04
7.012640106964111328e+04
7.013963644027709961e+04
-1.391537277954101562e+06
9.607715487060546875e+05
9.608208345947265625e+05
9.609314494628906250e+05
9.608446120605468750e+05
1.609122075768709183e+05
1.598992603378295898e+05
1.596291799697875977e+05
1.600240182552337646e+05
1.609267979649305344e+05
1.561601683983802795e+05
1.584871018109321594e+05
1.595221113282442093e+05
1.559925995621681213e+05
1.590893446955680847e+05
1.593197546873092651e+05
1.586895294940471649e+05
1.594100012983083725e+05
1.586035603121519089e+05
1.599299318587779999e+05
1.591185939769744873e+05
1.556539955811500549e+05
1.600570110960006714e+05
1.594955225915908813e+05
1.550148346675634384e+05
1.598959371170997620e+05
1.583462332766056061e+05
1.582134988079071045e+05
1.616577605880498886e+05
1.539603388396501541e+05
1.594544290833473206e+05
1.590062662301063538e+05
1.611634463255405426e+05
1.601335079838037491e+05
1.613756215096712112e+05
1.537121429742574692e+05
1.597591564674377441e+05
1.560197978274822235e+05
1.595146820645332336e+05
1.583755518877506256e+05
1.585973678175210953e+05
1.594699171788692474e+05
1.581186927266120911e+05
1.549938610577583313e+05
1.586320977001190186e+05
1.559424336097240448e+05
1.597337826706171036e+05
1.589460718721151352e+05
1.555862150430679321e+05
1.593282997322082520e+05
1.591716044689416885e+05
1.603813435841798782e+05
1.585633451856374741e+05
1.606521657451391220e+05
1.614898294571638107e+05
1.582182558346986771e+05
1.562769446120262146e+05
1.537827420668601990e+05
1.590545396076440811e+05
1.593365512868165970e+05
1.595403124419450760e+05
1.588562003601789474e+05
1.603863158919811249e+05
1.612146826934814453e+05
1.593866628191471100e+05
1.592083370707035065e+05
1.606244397157430649e+05
1.603299294395446777e+05
1.609462859026193619e+05
1.578068962098360062e+05
1.597508228662014008e+05
1.584644731109142303e+05
1.580572972699403763e+05
1.595908430730104446e+05
1.554597925376892090e+05
1.600412636567354202e+05
1.582456909265518188e+05
1.600505892089605331e+05
1.615503674508333206e+05
1.585423871650695801e+05
1.542309081407785416e+05
1.587843798102140427e+05
1.583332341909408569e+05
1.539798087956905365e+05
1.599410527763366699e+05
1.596190628850460052e+05
1.611056955995559692e+05
1.587219009633064270e+05
1.594679999840259552e+05
1.588698759907484055e+05
1.592333995209932327e+05
1.597474179421663284e+05
1.557842723181247711e+05
1.613025907981395721e+05
1.604118104329109192e+05
1.558016278889179230e+05
1.596936602251529694e+05
1.585343561971187592e+05
1.623693452728986740e+05
1.601967769521474838e+05
1.586894288262128830e+05
1.585490158976316452e+05
1.540024637752771378e+05
1.603923360503911972e+05
1.584559501615762711e+05
1.562255495767593384e+05
1.553675159223079681e+05
1.554630522882938385e+05
1.540392120869159698e+05
1.563632034480571747e+05
1.558605890100002289e+05
1.582488657108545303e+05
1.537443113968372345e+05
1.607054623682498932e+05
1.589109265911579132e+05
1.543040768104791641e+05
1.564563778879642487e+05
1.559452911782264709e+05
1.587054135876893997e+05
1.555936088154315948e+05
1.560078337106704712e+05
1.603112075341939926e+05
1.536096514048576355e+05
1.555298873970508575e+05
1.622538228271007538e+05
1.542108105962276459e+05
1.535835955936908722e+05
1.546742750602960587e+05
1.607264945020675659e+05
1.619343059287071228e+05
1.588125676672458649e+05
1.556343431482315063e+05
1.632101682863235474e+05
1.580854421535730362e+05
1.584898491470813751e+05
1.586512162307500839e+05
1.585437065011262894e+05
1.584122848130464554e+05
1.601732908649444580e+05
1.574295837911367416e+05
1.554562012972831726e+05
1.551967793300151825e+05
1.601985989781618118e+05
1.585251517111063004e+05
1.568278301110267639e+05
1.559997907924652100e+05
1.543345305559635162e+05
1.581593579716682434e+05
1.566084294772148132e+05
1.605343606972694397e+05
1.596182062397003174e+05
1.518442244290113449e+05
1.556088901699781418e+05
1.544263693947792053e+05
1.553299421777725220e+05
1.564319831402301788e+05
1.551699982481002808e+05
1.544589527869224548e+05
1.532419956158399582e+05
1.556021621413230896e+05
1.599957874790430069e+05
1.548295870783329010e+05
1.591910131541490555e+05
1.586135305697917938e+05
1.557342446460723877e+05
1.539648349856138229e+05
1.589128498466014862e+05
1.600740173777341843e+05
1.582588842618465424e+05
1.577141092827320099e+05
1.602733034079074860e+05
1.596168029364347458e+05
1.534508191027641296e+05
1.548195656827688217e+05
1.555409087719917297e+05
1.589891161812543869e+05
1.533800253512859344e+05
1.630437861142158508e+05
0.000000000000000000e+00
6.896674959182739258e+04
6.895351660919189453e+04
6.902586761856079102e+04
6.905259656143188477e+04
6.892753236770629883e+04
6.917729207992553711e+04
6.907652080535888672e+04
6.888546104431152344e+04
6.900015454483032227e+04
6.889306367874145508e+04
-1.638734251319885254e+06
-1.638666693374633789e+06
-1.638752553131103516e+06
-1.638692171264648438e+06
-4.012202884674072266e+04
-4.005675621795654297e+04
-4.002091323852539062e+04
-3.975536427307128906e+04
-8.217788703918457031e+04
-8.136736045837402344e+04
-6.129030147552490234e+03
-7.115734297752380371e+03
-6.733766155242919922e+03
-6.806802936553955078e+03
-6.916833372116088867e+03
-6.568732963562011719e+03
-6.795132577896118164e+03
-6.680399959564208984e+03
-7.181494776725769043e+03
-6.739300249099731445e+03
-7.459902868270874023e+03
-6.654192161560058594e+03
-6.817084189414978027e+03
-6.805785033226013184e+03
-6.744212494850158691e+03
-6.696755002021789551e+03
-7.130809523582458496e+03
-6.506552830696105957e+03
-6.928505764007568359e+03
-6.499218448638916016e+03
-6.961704661369323730e+03
-6.444584482192993164e+03
-6.606111596107482910e+03
-6.497267873764038086e+03
-3.623676175547508933e+02
-1.573898965164341632e+02
-1.993487930626536127e+02
-1.976369140392714030e+02
2.564574618651259357e+02
1.890068226445018951e+01
-5.925644811807483165e+02
-5.269733086640976580e+02
1.013593811097797470e+02
-8.881057576730898973e+01
-3.497855352299927389e+00
1.164496858415536281e+03
1.574261903078918863e+02
-6.021762911016170960e+01
-1.265726823987697571e+02
6.927912099108223032e+00
8.793103638996079496e+00
-3.896630679892035687e+02
2.553899498954011051e+03
-1.524745060096267579e+01
-7.984469744865269547e+01
1.398840422953571760e+01
-1.459068054805531460e+02
6.041338032374486602e+02
-1.982062236550804641e+02
2.714053639676872365e+01
-2.140159287223582680e+02
-7.109339001558401705e+00
-2.209898851421798440e+02
-4.276970507561994168e+02
2.849908962746487617e+01
-2.991030323565233857e+02
4.637401415490438694e+02
-4.812958850106705881e+02
3.410788727047528823e+01
-1.003094384403328121e+02
-2.306552617435947354e+02
4.668208094213563299e+02
2.013881505678564565e+02
-1.124449269280647883e+02
5.071397498281625644e+02
-6.797987285851488650e+02
-8.047544791895880962e+02
-1.696071077738903341e+02
3.549129548475191314e+02
-5.768238665893355801e+02
-4.958145244583438398e+02
-8.393216778964867331e+01
-3.657314149998977371e+01
3.966260321329474436e+01
1.714840582317303017e+02
6.899883786576045850e+02
-2.860311601890638258e+02
4.846648781534441355e+02
5.950597399039712627e+02
-6.364617745021882911e+01
-8.178206829516035725e+01
1.477044474908196037e+02
9.918127484307282771e+01
1.141983162431782404e+02
2.246224321416704868e+02
1.960975230893431672e+03
-5.320332898968035096e+01
-1.359226107788085938e+04
-1.372812542724609375e+04
-1.269574831390380859e+04
-1.268965728378295898e+04
-1.484095256805419922e+04
-1.499034356689453125e+04
-1.323488528442382812e+04
-1.331361713790893555e+04
-1.099924406433105469e+04
-1.089748168563842773e+04
-8.742768997192382812e+03
-8.740622104644775391e+03
-1.051460472869873047e+04
-1.058157365798950195e+04
-1.444375315856933594e+04
-1.471285684967041016e+04
2.352470833923339844e+06
2.352375632446289062e+06
7.338562011718750000e+01
7.704605102539062500e+00
1.381186218261718750e+02
-7.760009765625000000e+00
1.789486694335937500e+02
6.201783752441406250e+01
1.602548828125000000e+02
-6.162109375000000000e+00
