5.170094689977260714e+03
-7.674945292557446841e-01
1.462078588456868829e+03
-2.076677541433541023e+02
2.904918834187549692e+03
-5.497505910741887547e+00
-1.083227598466245070e+02
-1.010799220488626915e+00
-1.673714603176539029e-01
-3.549510540261299951e+01
3.938485087182865527e+02
-4.875366857804181109e+02
6.043464581342627753e+02
-3.384190297215476650e-04
-1.728741815255125402e+03
1.289904908347200035e+03
-2.262577069404686654e+02
-7.718668786236088408e+01
-7.604966883171383074e+01
-8.481335284862848312e+01
-8.621554626929946608e+02
-9.486098031874507797e+02
-2.292508284245751611e+02
-5.568545960822400502e+02
-2.895774109410706387e+02
-2.740707552188846421e+02
-3.925385164667300160e+02
-2.404347728013331107e+02
6.207538774052750341e+01
-4.057567364720080150e+01
-4.849276733398437500e+01
1.742870355397679759e+03
3.401088986650174775e+02
2.581726709272887206e+02
3.853562119337904051e+02
1.937791515101277582e+03
-4.538552624566676741e+00
3.141039202141982400e+01
1.864870022676454653e+02
2.392604953980043376e+02
5.048164660356443534e+01
8.928145014975993377e+01
1.164515513609757988e+02
1.290341486730026475e+02
4.537116063953085643e+01
3.438261837532355116e+02
3.493874860992249296e+02
8.916824289957111205e+01
3.849595457604697799e+02
1.474935907961603903e+02
4.144837347643009480e+02
3.180978080152616485e+02
-3.957169211577114254e+01
-6.296793656689114016e+01
1.929395871660123703e+03
2.976902749724790453e+01
2.882991113245245174e+02
4.678419978303835336e+01
6.844924846378926304e+02
1.191094266578483882e+02
1.292174565597284072e+03
-2.719621219304612936e+01
5.983190430044763843e+02
-3.907717056111833642e+01
1.430909229174549182e+02
-8.241966211418983335e+00
5.286848558774245532e+01
2.883790311454237099e+02
-4.301133926505932692e+01
-2.399756556065640780e+03
8.784911758459540465e+01
-4.156854225995213170e+01
6.389912471871369917e+02
2.587413090943064731e+01
6.259143805502785085e+01
-2.934368520774397439e+03
6.160331589532677299e+01
2.351166765514032704e+03
4.212600509548757088e+01
2.503424477843888383e+02
5.352953511469935393e+02
-7.341302823344048534e+01
2.549350227475853004e+01
-7.840341017781217943e+02
8.654511346287168294e+01
1.050159884810161941e+02
3.205569960873817195e+02
7.906117045066429228e+01
4.052507692213014820e+02
1.494931293624057389e+03
2.359732287918025406e+02
4.324693408615233636e+01
2.324009713672349449e+02
9.795492706411773725e+02
1.044420029850810806e+03
-1.290395824420473900e+02
2.648421193044459301e+02
2.291276796520241987e+01
-1.006540228403195840e+02
1.515702848523688999e+02
6.594713369991015384e+01
-8.136770763758818248e+01
-4.057312969594605079e+01
8.526648191429040935e+01
4.680284444120137550e+02
6.091589642232645474e+01
7.332379767056582409e+01
5.685141288321133146e+01
-4.131493234468374709e+01
9.950465854691941558e+00
1.509807203572394428e+03
1.664530730410200476e+02
4.238332979050730955e+02
1.150527022823899728e+02
1.451348971620457462e+02
1.248223236104543048e+02
1.158621526335057155e+02
4.778496348883178371e+02
-1.516127890318031177e+02
5.281763422900473870e+02
1.877459513590257814e+02
-3.363536991410473547e+03
1.799774889484108371e+02
-3.731241263808169606e+03
8.078580946764169539e+02
-2.859172557873128540e+02
-7.486690916978993755e+02
-6.988448208378686104e+02
-1.082321616648915210e+02
2.081516976387595435e+02
4.303033891078305118e+01
-1.864675521134594646e+03
-1.368390884850249677e+03
-8.913857910646726168e+02
-1.116399226329569956e+02
3.868424088590840029e+02
-1.981507530396307175e+03
-1.449216839923764383e+03
-2.066224635324880182e+03
3.265822587165342270e+02
1.480531912662035268e+02
1.462966416018931113e+03
1.018973147472841561e+02
-3.910332959973396555e+03
1.033956269114082431e+02
-6.827611346787807634e+01
-1.888523599564014376e+03
1.004382034224956442e+03
-1.892316819252505411e+03
-3.525498008713816489e+02
1.792090402177132091e+03
6.186878431960403759e+02
-1.866755678922221477e+03
1.240304032317175370e+03
2.672192427170117526e+02
8.464935535294835063e+02
-6.453516342989158261e+01
-5.981330728988076544e+02
1.425986762556833355e+03
-1.489047187278908041e+03
-1.500944342072361337e+02
1.416670746070267342e+02
1.797838881712210934e+01
-3.728763875947463191e+01
5.458064822063869315e+02
-2.363560869370946875e+03
-1.403516559128462177e+03
-1.573020564138813825e+03
9.527680014030266875e+01
4.220335845263514329e+02
3.257834447004249341e+03
-4.688176798645001782e+02
7.782710359390191002e+01
-4.836200884507542810e+02
1.472814992522681905e+02
1.806832920628591808e+02
4.561243998402421767e+02
2.356022802089526067e+02
4.321968273455076087e+03
2.790977483567830404e+03
-2.486565797722807019e+03
-1.199475099162586730e+03
-5.960314681354939239e+03
-3.590223070007860770e+03
-2.324635741997859441e+03
1.008530636690339293e+03
1.340162589115079754e+02
-2.413912279512659552e+03
1.723849200534143051e+02
6.617977641806533029e+01
6.356108249658639124e+02
-9.208569621464689590e+02
1.728213504480975189e+03
7.970928309561307969e+02
-1.369765655373285426e+03
-4.230401941734873617e+03
1.056095578855840358e+03
1.834908259999427401e+03
-4.123936106764946885e+01
1.962419208454496584e+03
-1.997257250831221882e+03
8.552875861752454512e+02
-6.267337882527690454e+03
1.925606784830973766e+03
0.000000000000000000e+00
-4.450925780651346031e+02
-2.209171034687518613e+02
-2.073444248736958571e+02
-1.428598546915029033e+02
-1.718836471781485216e+02
-4.024971318983205038e+02
-1.455018982320723921e+02
-1.798029360317748910e+02
-1.547711591317266766e+02
-4.832163277635720533e+02
3.507186899710097094e+01
6.792228342969173127e+02
1.422356696254553015e+02
5.255648513513020816e+02
-5.474442637693978213e+02
3.884273234813717579e+01
1.136058141990226744e+02
4.443397682994093429e+02
4.859045106014809221e+02
2.868774463648805522e+03
4.715119988315386763e+02
-1.647031800621649609e+03
7.989443001693041424e+01
1.920137793827780115e+02
6.244739880151783495e+01
1.327818247306266812e+02
1.623906023243495156e+02
1.457222109444590501e+02
-2.684561149100829880e+01
8.114723232635918748e+01
-2.718211790896958064e+03
9.693343806514832295e+01
7.355508865436851806e+01
7.610698621724830559e+01
1.077821404063353441e+02
1.124765108955686514e+02
1.931575509480222763e+01
1.400872840327633355e+02
4.995367591100250593e+01
4.813975416321782745e+02
4.950376300106051985e+01
4.496794046261692301e+02
2.094125961489202723e+02
2.653686263287742122e+02
-2.195104186697253226e+03
-2.187209166481794398e+01
-2.307049898216935162e+02
-5.032726101836776706e+02
2.992443679990755072e+02
-1.298774276063883008e+03
-4.990478110240035676e+03
-5.698717037156776399e+01
-2.039141373442783788e+03
-2.273228058371699262e+03
-3.443740745635465395e+00
4.887418139737505385e+02
-3.376522569990557088e+01
-1.067369290746747623e+01
-2.939119675044435809e+01
3.513321664336949368e+01
4.251424293801786547e-01
-4.958065431687940645e+02
5.870717631144185361e+03
1.744545372959391827e+01
-5.900167118199088456e+00
-3.949847269244397467e+03
-3.428680447394995667e+00
6.874208981058566224e+02
-1.409393858425525536e+01
-1.438990921836405050e+02
-4.266117886616470400e+01
3.965806484758594763e+00
7.075351203196724725e-01
-1.248727763769702506e+02
4.179026070782067137e+01
-4.273120247832424212e+01
2.576862081249590801e+02
-2.173665111639984104e+01
-1.210817727237432564e+02
-2.219605100791605068e+01
-6.183246449008632339e+01
1.835458635250768111e+02
-8.802375326129276800e+01
-1.061223859947759252e+01
3.453258902685076919e+02
-2.740773301246402127e+01
-1.469829692221493360e+03
1.061078154147510304e+03
3.699984497664943461e+01
-4.253403832992280513e+03
-1.266400189670646910e+02
-9.503518782653792130e+00
-1.195008398639883040e+02
6.489899370070997975e+01
-1.915066931708254572e+01
3.342762212799001986e+02
-1.340893250884892268e+03
7.145221878020379336e+01
-3.482230297172806104e+02
-7.507849191543012779e+00
-4.044570792939275350e+01
3.530309147116964397e+01
-1.329095364503133681e+01
-2.224911524588503653e+01
1.847204200183161674e+03
3.176791261817583745e+03
-9.556776491298114706e+02
1.811025594146042295e+02
5.327280201948406102e+01
2.287060329511159580e+02
1.806116054275847773e+02
-1.157041948837982090e+02
-1.807546254512701012e+02
3.625787328688653588e+01
3.699739873930695921e+00
3.529867992306958513e+01
3.620475096139449533e+01
2.307461051203983970e+01
4.070168025047337323e+00
-6.079853635318272609e+01
-1.002016238860143176e+02
-7.704504190304214717e+02
-8.318062442749960610e+02
8.904395419329330252e+01
2.879242920035788984e+02
-3.239780076221904892e+00
5.869765082403341694e+01
-2.100965185604509315e+02
-1.567903510270107290e+02
-2.726700328859968181e+01
-1.331064456809053809e+01
-1.841029357910156250e+01
-3.008010864257812500e+01
