5.170044309389259979e+03
-7.674714919144258740e-01
1.462014210253734291e+03
-2.076657228541471909e+02
2.904917237051473876e+03
-5.497503465121148736e+00
-1.083341928091635253e+02
-1.010799582905616001e+00
-1.673701833416256224e-01
-3.549511387706247945e+01
3.938504233493765128e+02
-4.875031007100124043e+02
6.043250462808678094e+02
-3.387591003730702072e-04
-1.728737820054847134e+03
1.290045923857589514e+03
-2.262566911229527022e+02
-7.718633834747282663e+01
-7.604953402684262187e+01
-8.481329241651991424e+01
-8.621550733806175231e+02
-9.486094629908197930e+02
-2.292510805915436549e+02
-5.568542223126360113e+02
-2.895769747045421809e+02
-2.740699274250437156e+02
-3.925400242593018447e+02
-2.404352822130658751e+02
6.207545429813285409e+01
-4.057564500315970690e+01
-4.849282836914062500e+01
1.742870555924985865e+03
3.401088904543422018e+02
2.581728673338311637e+02
3.853563005616892951e+02
1.937791722950491931e+03
-4.537041940936937578e+00
3.141062646602524921e+01
1.864872069172984368e+02
2.392614007717423874e+02
5.048165149529682338e+01
8.928152683193161465e+01
1.164519166034157536e+02
1.290342644886491712e+02
4.537133805269538556e+01
3.438261798445815316e+02
3.493877808524548527e+02
8.916884172196600389e+01
3.849596181314421415e+02
1.474937412345962002e+02
4.144838837010355519e+02
3.180979031362522846e+02
-3.957152239963904350e+01
-6.296776988794310626e+01
1.929396022409406669e+03
2.976914993446481361e+01
2.882991328845300814e+02
4.678428790185844832e+01
6.844925825479928108e+02
1.191095351343782198e+02
1.292174704124300206e+03
-2.719601849559778373e+01
5.983192248456738298e+02
-3.907563748942536819e+01
1.430909361466488008e+02
-8.241720390604157842e+00
5.286864218700460327e+01
2.883791970316633524e+02
-4.301125935829182367e+01
-2.399745805742409175e+03
8.784936663695117431e+01
-4.156710424896348144e+01
6.389912897177114246e+02
2.587415030878725020e+01
6.259202105345056566e+01
-3.106619663558921275e+03
6.160341654598580163e+01
2.351166870689130974e+03
4.212621890791092483e+01
2.503425137453347702e+02
5.352954508417170700e+02
-7.341286309200620508e+01
2.549487750457549851e+01
-7.840277159652359842e+02
8.654514429859162306e+01
1.050160975784932162e+02
3.205571302323559735e+02
7.906145134656669882e+01
4.052510001871477812e+02
1.494931991241952346e+03
2.359734190567731957e+02
4.324707726422050058e+01
2.324009616752596799e+02
9.795490790116955395e+02
1.044420192604121667e+03
-1.290395185620914162e+02
2.648421466646400972e+02
2.291288134797331111e+01
-1.006539483011464569e+02
1.515702995813613256e+02
6.594774095973839678e+01
-8.136502663483736342e+01
-4.057305612819210694e+01
8.526660040156555453e+01
4.680284572895842530e+02
6.091599335740441035e+01
7.332389299133194527e+01
5.685169134091285059e+01
-4.131466632811250150e+01
9.950575621262984782e+00
1.337556394071585828e+03
1.664531283633366741e+02
4.238332569736019195e+02
1.150530515095609303e+02
1.451349561529257528e+02
1.248225150014467317e+02
1.158623005949965545e+02
4.778499955717034595e+02
-1.516110614896289519e+02
5.281763561076631959e+02
1.877461250844536664e+02
-3.363480013716717622e+03
1.799775032983145593e+02
-3.731177698537474498e+03
8.078580255094367431e+02
-2.859144514512739192e+02
-7.486263142638251793e+02
-6.988590785697226693e+02
-1.082171485372889776e+02
2.081516941589315195e+02
4.303055018671049936e+01
-1.864793413004848389e+03
-1.368364349537401040e+03
-8.913526086041679264e+02
-1.114641372732398850e+02
3.868688470075052805e+02
-1.981448070531171652e+03
-1.449246920821206004e+03
-2.066438712515234329e+03
3.265823357021336051e+02
1.480533708849695529e+02
1.462937828871972897e+03
1.018988597401640419e+02
-3.910112839648352747e+03
1.033958274060466920e+02
-6.826331021977364344e+01
-1.888462154664986201e+03
1.004422230489119215e+03
-1.892275620485905165e+03
-3.524540868803861713e+02
1.792090610286357332e+03
6.186785576423462771e+02
-1.866602273989273499e+03
1.240347800309886679e+03
2.672193757095386104e+02
8.464935319252441559e+02
-6.453514392586805570e+01
-5.981730829820254485e+02
1.425986590711951294e+03
-1.489072785216396596e+03
-1.500968483012276806e+02
1.418345171912649221e+02
1.797862947689260693e+01
-3.728730663609296414e+01
5.458067441379630509e+02
-2.363501433618842384e+03
-1.403339951461042574e+03
-1.572966851914479321e+03
9.527685325822100992e+01
4.220392242170694317e+02
3.257766834469779951e+03
-4.687805057115148770e+02
7.782730816935341522e+01
-4.836086023960378384e+02
1.472829534910241307e+02
1.806833925604917397e+02
2.838816823143499164e+02
2.355063948209909768e+02
4.321759713726222799e+03
2.790836942554043162e+03
-2.486376661337481892e+03
-1.199128773731748197e+03
-5.959712498083305036e+03
-3.589939513254510530e+03
-2.325517670928644748e+03
1.008419000066613989e+03
1.340162305582192062e+02
-2.413427389729475181e+03
1.723850552339813476e+02
6.470245492808703602e+01
6.355055406297402669e+02
-9.206886614005497904e+02
1.728357878676922610e+03
7.968857784616935760e+02
-1.371346826339724430e+03
-4.227449737547086443e+03
1.056087696847316693e+03
1.834895774190459633e+03
-4.123926508475312858e+01
1.978824089265943712e+03
-1.977144449789347163e+03
8.782308267970454381e+02
-6.254284282028424059e+03
1.925169346991387556e+03
0.000000000000000000e+00
-4.450930327107246285e+02
-2.209173185070181944e+02
-2.073446598140602646e+02
-1.428600206194651605e+02
-1.718838018437087953e+02
-4.024970514225460647e+02
-1.455016874077443276e+02
-1.798030330057967490e+02
-1.547712259077682120e+02
-4.832163491254950713e+02
3.507186763381866257e+01
6.792264589133683330e+02
1.422355134624907578e+02
5.255642381119130278e+02
-5.474437393716468705e+02
3.884276935283713783e+01
1.136058720827204951e+02
4.443398219522081831e+02
4.859044053594672619e+02
2.868774145193431650e+03
4.715119099601461130e+02
-1.647037034236505406e+03
7.989449442864665230e+01
1.920136958583484557e+02
6.244735781636356364e+01
1.327818585840257128e+02
1.623905453076368417e+02
1.457222545186355660e+02
-2.684566575677237665e+01
8.114718444180337542e+01
-2.718199844838838544e+03
9.693344112547615055e+01
7.355510419083495322e+01
7.610699796314807486e+01
1.077820593482232994e+02
1.124764671060702312e+02
1.931573515902746863e+01
1.400873589882186252e+02
4.995365133712593320e+01
4.813975377537990425e+02
4.950377586535887531e+01
4.496793872674903696e+02
2.094124138279045155e+02
2.653686709367219692e+02
-2.195105815169611105e+03
-2.187211901226794808e+01
-2.306949624131809742e+02
-5.033687109125551160e+02
2.992443018674002246e+02
-1.298772933879053198e+03
-4.990470441236413535e+03
-5.698717662538069106e+01
-2.039137752403968761e+03
-2.273226079022824706e+03
-3.443740181115451549e+00
4.887408959647302709e+02
-3.376497914033613768e+01
-1.067364290137937033e+01
-2.939121600642652155e+01
3.513318790143131309e+01
4.251762096342304176e-01
-4.958063776605258113e+02
5.870714858491643099e+03
1.744537182042243373e+01
-5.900028116955158275e+00
-3.949810757865436244e+03
-3.428761658664882361e+00
6.874220638907129342e+02
-1.409390661244406573e+01
-1.439118168892864560e+02
-4.266118540798996150e+01
3.965706802660374564e+00
7.075516209259171685e-01
-1.248728159748506243e+02
4.179002836401978271e+01
-4.273127518538013447e+01
2.576862257495189397e+02
-2.173667332178958134e+01
-1.210999206185682056e+02
-2.219601961680567825e+01
-6.183248692931289980e+01
1.835459287497869525e+02
-8.802312119177277339e+01
-1.061227055451014678e+01
3.453261623919449335e+02
-2.740778714782551617e+01
-1.469832596993055631e+03
1.061079917899310658e+03
3.699987236984582495e+01
-4.253295714882041466e+03
-1.266400102874102345e+02
-9.503595569646236640e+00
-1.195000743447700842e+02
6.489976970394104683e+01
-1.915067653952122839e+01
3.342761040146094729e+02
-1.340889317430515575e+03
7.145128026516908903e+01
-3.482226467752925601e+02
-7.507792512232395410e+00
-4.044561704914649169e+01
3.530317358706613362e+01
-1.329096181373250118e+01
-2.224911209410255353e+01
1.847193206129061764e+03
3.176790698703675844e+03
-9.556757023104689779e+02
1.811035122013659020e+02
5.327406184546612167e+01
2.287064719946073410e+02
1.806121475380673473e+02
-1.157035176223121198e+02
-1.807540896764392073e+02
3.625779967791214631e+01
3.699738652203905076e+00
3.529777603854790868e+01
3.620383280282175065e+01
2.307479463521019625e+01
4.070402418759499596e+00
-6.079875474784796552e+01
-1.002017688018522108e+02
-5.981823555797318477e+02
-6.595167564623643557e+02
8.904452574814058607e+01
2.879259811156822479e+02
-3.239786682584622213e+00
5.869760312529592738e+01
-2.100969876024337282e+02
-1.567907036707629231e+02
-2.726720983734412584e+01
-1.331066296047788455e+01
-1.841046142578125000e+01
-3.008023071289062500e+01
